<?xml version="1.0"?>
<opencv_storage>
<stage9>
  <maxWeakCount>6</maxWeakCount>
  <stageThreshold>-7.5576990842819214e-01</stageThreshold>
  <weakClassifiers>
    <_>
      <internalNodes>
        0 -1 1801676 1499853527 -687083389 1627701450 -787355543
        -520056430 276824385 -1164736309 2013137627</internalNodes>
      <leafValues>
        -7.2117042541503906e-01 3.3110368251800537e-01</leafValues></_>
    <_>
      <internalNodes>
        0 -1 2179735 -1337686030 -901258870 319246523 -150337525
        1078043802 -1870610295 -502878722 -654430048</internalNodes>
      <leafValues>
        -7.3560178279876709e-01 4.4193044304847717e-01</leafValues></_>
    <_>
      <internalNodes>
        0 -1 2270936 2146270095 1406780509 287317446 -1999830965
        -385807999 -645856759 210478108 -41792749</internalNodes>
      <leafValues>
        -6.5143936872482300e-01 5.3865098953247070e-01</leafValues></_>
    <_>
      <internalNodes>
        0 -1 1962382 2031565100 -1569636349 -787410638 -1141764010
        -1872504784 -391446383 -372643413 -1126184116</internalNodes>
      <leafValues>
        -6.9037055969238281e-01 5.2004545927047729e-01</leafValues></_>
    <_>
      <internalNodes>
        0 -1 2015076 -1861103522 -1951137443 1073790980 -501592047
        2021753758 1946831041 -1375016493 1904931785</internalNodes>
      <leafValues>
        -6.6141474246978760e-01 5.9371578693389893e-01</leafValues></_>
    <_>
      <internalNodes>
        0 -1 896489 -1194362046 -871808873 -2147405737 -1912432358
        -2146794250 -99593785 76513423 -1304141819</internalNodes>
      <leafValues>
        -8.1750893592834473e-01 4.7442063689231873e-01</leafValues></_></weakClassifiers></stage9>
</opencv_storage>
