<?xml version="1.0"?>
<opencv_storage>
<stage8>
  <maxWeakCount>6</maxWeakCount>
  <stageThreshold>-7.0853716135025024e-01</stageThreshold>
  <weakClassifiers>
    <_>
      <internalNodes>
        0 -1 1003724 -1067462049 -887521265 -1056960372 -2091286308
        -1332106506 -2034106238 -401983473 -605204261</internalNodes>
      <leafValues>
        -7.0617693662643433e-01 3.6654803156852722e-01</leafValues></_>
    <_>
      <internalNodes>
        0 -1 2087700 -662657832 1444647188 1747001745 1804753119
        -1773850437 -1620933632 -1907744101 1230467399</internalNodes>
      <leafValues>
        -7.9051071405410767e-01 3.7638881802558899e-01</leafValues></_>
    <_>
      <internalNodes>
        0 -1 645764 -136547437 -2145881785 285282461 -1795087694
        -1060500299 -2012704639 16861407 2053132961</internalNodes>
      <leafValues>
        -6.7693084478378296e-01 5.1829254627227783e-01</leafValues></_>
    <_>
      <internalNodes>
        0 -1 2670615 -1063614640 1272943183 1224840666 -773598505
        -1602092899 -649264608 839334137 1834175163</internalNodes>
      <leafValues>
        -7.5274938344955444e-01 4.9160224199295044e-01</leafValues></_>
    <_>
      <internalNodes>
        0 -1 68826 -1004176880 -527285876 134217993 -1479475134
        -1073658232 1217003648 -2138746502 -141595681</internalNodes>
      <leafValues>
        -6.1830872297286987e-01 6.2103915214538574e-01</leafValues></_>
    <_>
      <internalNodes>
        0 -1 1962404 -1110723811 1414596097 -1044152231 -549175184
        -1702690526 1426102402 -2130687589 36276880</internalNodes>
      <leafValues>
        -7.2028505802154541e-01 5.5209463834762573e-01</leafValues></_></weakClassifiers></stage8>
</opencv_storage>
