<?xml version="1.0"?>
<opencv_storage>
<stage4>
  <maxWeakCount>6</maxWeakCount>
  <stageThreshold>-8.8233238458633423e-01</stageThreshold>
  <weakClassifiers>
    <_>
      <internalNodes>
        0 -1 363545 -1850486497 1168228373 536904055 1170948122
        -2141573102 949027970 -515144841 -81018085</internalNodes>
      <leafValues>
        -7.6618707180023193e-01 3.2716050744056702e-01</leafValues></_>
    <_>
      <internalNodes>
        0 -1 841949 -28626749 -482164209 -1073692397 -946683881
        -511485217 1107946383 1074993788 1924125518</internalNodes>
      <leafValues>
        -7.3303407430648804e-01 4.3612530827522278e-01</leafValues></_>
    <_>
      <internalNodes>
        0 -1 419510 -563115813 2018871446 1259450904 188322821
        1562493898 -418920446 1980375251 2034479627</internalNodes>
      <leafValues>
        -6.9672167301177979e-01 5.1923781633377075e-01</leafValues></_>
    <_>
      <internalNodes>
        0 -1 368515 -909190861 -268365805 1361380633 1602970380
        -2138852182 1217593363 2066420455 1463933802</internalNodes>
      <leafValues>
        -7.1287453174591064e-01 5.4642546176910400e-01</leafValues></_>
    <_>
      <internalNodes>
        0 -1 1779299 -1827581276 1129443725 1358995982 1024806977
        -2003735765 436273166 42701033 1939851435</internalNodes>
      <leafValues>
        -7.2037261724472046e-01 5.7138878107070923e-01</leafValues></_>
    <_>
      <internalNodes>
        0 -1 938806 -752924848 -780005070 536871358 -1560149751
        1156186397 -1610413821 16876431 1467728043</internalNodes>
      <leafValues>
        -7.3160880804061890e-01 5.4565548896789551e-01</leafValues></_></weakClassifiers></stage4>
</opencv_storage>
