<?xml version="1.0"?>
<opencv_storage>
<stage3>
  <maxWeakCount>6</maxWeakCount>
  <stageThreshold>-8.2176303863525391e-01</stageThreshold>
  <weakClassifiers>
    <_>
      <internalNodes>
        0 -1 1724054 -683936169 1897370624 285278217 -215498464
        -1593801498 -301885440 570592658 -172541297</internalNodes>
      <leafValues>
        -7.1428573131561279e-01 4.2435425519943237e-01</leafValues></_>
    <_>
      <internalNodes>
        0 -1 419169 1506279074 -587086542 -443457565 871735365
        1124712330 571689089 143430875 1533786295</internalNodes>
      <leafValues>
        -7.4186170101165771e-01 4.9449169635772705e-01</leafValues></_>
    <_>
      <internalNodes>
        0 -1 265541 -648854011 -950839285 -1055879139 -980033533
        -510975680 1108017153 704856190 -10000473</internalNodes>
      <leafValues>
        -7.7763462066650391e-01 4.9864605069160461e-01</leafValues></_>
    <_>
      <internalNodes>
        0 -1 1641296 -716453815 -497826496 -1879029464 78610579
        1745027683 -1607270400 1212255252 -359200433</internalNodes>
      <leafValues>
        -7.2351670265197754e-01 5.3691422939300537e-01</leafValues></_>
    <_>
      <internalNodes>
        0 -1 2697048 -226474394 -2126278400 1111769542 -1861826399
        -2130148451 -1341456354 -628717158 1159406506</internalNodes>
      <leafValues>
        -8.0642735958099365e-01 5.1035672426223755e-01</leafValues></_>
    <_>
      <internalNodes>
        0 -1 1352820 -494505250 -1725839344 134336615 -381615615
        1342537821 1350816136 545917123 856662090</internalNodes>
      <leafValues>
        -7.8974169492721558e-01 5.3879606723785400e-01</leafValues></_></weakClassifiers></stage3>
</opencv_storage>
